tree
version=v2
num_class=1
num_tree_per_iteration=1
label_index=0
max_feature_idx=274
objective=binary sigmoid:1
feature_names=Column_0 Column_1 Column_2 Column_3 Column_4 Column_5 Column_6 Column_7 Column_8 Column_9 Column_10 Column_11 Column_12 Column_13 Column_14 Column_15 Column_16 Column_17 Column_18 Column_19 Column_20 Column_21 Column_22 Column_23 Column_24 Column_25 Column_26 Column_27 Column_28 Column_29 Column_30 Column_31 Column_32 Column_33 Column_34 Column_35 Column_36 Column_37 Column_38 Column_39 Column_40 Column_41 Column_42 Column_43 Column_44 Column_45 Column_46 Column_47 Column_48 Column_49 Column_50 Column_51 Column_52 Column_53 Column_54 Column_55 Column_56 Column_57 Column_58 Column_59 Column_60 Column_61 Column_62 Column_63 Column_64 Column_65 Column_66 Column_67 Column_68 Column_69 Column_70 Column_71 Column_72 Column_73 Column_74 Column_75 Column_76 Column_77 Column_78 Column_79 Column_80 Column_81 Column_82 Column_83 Column_84 Column_85 Column_86 Column_87 Column_88 Column_89 Column_90 Column_91 Column_92 Column_93 Column_94 Column_95 Column_96 Column_97 Column_98 Column_99 Column_100 Column_101 Column_102 Column_103 Column_104 Column_105 Column_106 Column_107 Column_108 Column_109 Column_110 Column_111 Column_112 Column_113 Column_114 Column_115 Column_116 Column_117 Column_118 Column_119 Column_120 Column_121 Column_122 Column_123 Column_124 Column_125 Column_126 Column_127 Column_128 Column_129 Column_130 Column_131 Column_132 Column_133 Column_134 Column_135 Column_136 Column_137 Column_138 Column_139 Column_140 Column_141 Column_142 Column_143 Column_144 Column_145 Column_146 Column_147 Column_148 Column_149 Column_150 Column_151 Column_152 Column_153 Column_154 Column_155 Column_156 Column_157 Column_158 Column_159 Column_160 Column_161 Column_162 Column_163 Column_164 Column_165 Column_166 Column_167 Column_168 Column_169 Column_170 Column_171 Column_172 Column_173 Column_174 Column_175 Column_176 Column_177 Column_178 Column_179 Column_180 Column_181 Column_182 Column_183 Column_184 Column_185 Column_186 Column_187 Column_188 Column_189 Column_190 Column_191 Column_192 Column_193 Column_194 Column_195 Column_196 Column_197 Column_198 Column_199 Column_200 Column_201 Column_202 Column_203 Column_204 Column_205 Column_206 Column_207 Column_208 Column_209 Column_210 Column_211 Column_212 Column_213 Column_214 Column_215 Column_216 Column_217 Column_218 Column_219 Column_220 Column_221 Column_222 Column_223 Column_224 Column_225 Column_226 Column_227 Column_228 Column_229 Column_230 Column_231 Column_232 Column_233 Column_234 Column_235 Column_236 Column_237 Column_238 Column_239 Column_240 Column_241 Column_242 Column_243 Column_244 Column_245 Column_246 Column_247 Column_248 Column_249 Column_250 Column_251 Column_252 Column_253 Column_254 Column_255 Column_256 Column_257 Column_258 Column_259 Column_260 Column_261 Column_262 Column_263 Column_264 Column_265 Column_266 Column_267 Column_268 Column_269 Column_270 Column_271 Column_272 Column_273 Column_274
feature_infos=[100002:456255] [0:1] [0:1] [0:1] [0:19] [25650:117000000] [45000:4050000] [1615.5:225000] [40500:4050000] [0.0002899999963119626:0.072507999837398529] [-25201:-7489] [-17583:0] [-23416:0] [-7197:0] [0:91] none [0:1] [0:1] [0:1] [0:1] [0:1] [1:20] [1:3] [1:3] [0:23] [0:1] [0:1] [0:1] [0:1] [0:1] [0:1] [0.014691482298076153:0.95162397623062134] [8.1736168056067982e-08:0.85499966144561768] [0.00052726524882018566:0.89397609233856201] [0:1] [0:1] [0:1] [0:1] [0:1] [0:1] [0:1] [0:1] [0:1] [0:1] [0:1] [0:1] [0:1] [0:1] [0:1] [0:1] [0:1] [0:1] [0:1] [0:1] [0:1] [0:1] [0:1] [0:1] [0:1] [0:1] [0:1] [0:1] [0:1] [0:1] [0:1] [0:1] [0:1] [0:1] [0:1] [0:1] [0:1] [0:1] [0:1] [0:1] [0:1] [0:1] [0:1] [0:348] [0:34] [0:344] [0:24] [-4292:0] none [0:1] [0:1] [0:1] [0:1] [0:1] [0:1] [0:1] none [0:1] none [0:1] [0:1] [0:1] [0:1] [0:1] [0:1] [0:1] [0:1] [0:1] [0:4] [0:9] [0:8] [0:27] [0:19] [0:25] [0:1] [0:1] [0:1] [0:1] [0:1] [0:1] [0:1] [0:1] [0:1] none [0:1] [0:1] [0:1] [0:1] [0:1] [0:1] [0:1] [0:1] [0:1] [0:1] [0:1] [0:1] [0:1] [0:1] [0:1] [0:1] [0:1] [0:1] [0:1] [0:1] [0:1] [0:1] [0:1] [0:1] [0:1] [0:1] [0:1] [0:1] [0:1] [0:1] [0:1] [0:1] [0:1] [0:1] [0:1] [0:1] [0:1] [0:1] [0:1] [0:1] [0:1] [0:1] [0:1] [0:1] [0:1] [0:1] [0:1] [0:1] [0:1] [0:1] [0:1] [0:1] [0:1] [0:1] [0:1] [0:1] [0:1] [0:1] [0:1] [0:1] [0:1] [0:1] [0:1] [0:1] [0:1] [0:1] [0:1] [0:1] [0:1] [0:1] [0:1] [0:1] [0:1] [0:1] [0:1] [0:1] [0:1] [0:1] [0:1] [0:1] [0:1] [0:1] [0:1] [0:1] [0:1] [0:1] [0:1] [0:1] [0:1] [0:1] [0:1] [0:1] [0:1] [0:1] [0:1] [0:1] [0:1] [0:1] [0:1] [0:1] [0:1] [0:1] [0:1] [0:1] [0:1] [0:1] [0:1] [0:1] [0:1] [0:1] [0:1] [0:1] [0:1] [0:1] [0:1] [0:1] [0:1] [0:1] [0:1] [0:1] [0:1] [0:1] none [0.014691482298076153:0.95162397623062134] [8.1736168056067982e-08:0.85499966144561768] [0.00052726524882018566:0.89397609233856201] [-25201:-7489] [0.00021583965281024575:0.90558815002441406] [2.8853250455540547e-08:0.74606269598007202] [1.4048257980903145e-05:0.7890322208404541] [-23682.716796875:-132.10148620605469] [6.6808008472964749e-15:0.73102444410324097] [5.2391584404176683e-09:0.70476537942886353] [-20000.87109375:-0.00089116941671818495] [2.7800862767435319e-07:0.79919320344924927] [-21659.177734375:-4.2497577667236328] [56085120:635090432] [3.171004436808289e-06:0.86177939176559448] [1.0185332577350437e-08:0.70746332406997681] [3.742965475339588e-07:0.73804354667663574] [-22317.009765625:-2.0607938766479492] [2.3583540244916275e-15:0.61281114816665649] [2.6510034167870344e-09:0.61855709552764893] [-17999.578125:-0.00031458697048947215] [7.4071579980738989e-09:0.69701194763183594] [-19490.673828125:-0.13864225149154663] [1118635.375:595194048] [5.4606304913623072e-22:0.62502562999725342] [3.5760740004528273e-15:0.59013694524765015] [-16124.5849609375:-7.2840768139403878e-11] [2.7624261385306159e-12:0.62197679281234741] [-16843.8359375:-7.4600378866307437e-05] [9.7164201736450195:501462944] [1.4658428637570609e-10:0.71445959806442261] [-19032.78125:-0.002240749541670084] [34253.046875:539281664] [-16004913561600:-420021469184]
tree_sizes=2582 2612 2634 2628 2626 2645 2635 2642 2654 2667 2648 2631 2673 2642 2654 2672 2662 2673 2648 2657

Tree=0
num_leaves=31
num_cat=0
split_feature=269 269 268 31 31 261 269 247 33 31 83 128 11 33 266 33 128 128 33 246 10 32 8 11 268 11 268 7 8 250
split_gain=8279.85 1599.77 1349.53 438.021 393.862 342.354 284.703 257.019 254.582 191.881 177.909 173.433 171.368 124.379 124.279 113.752 106.298 101.543 98.6444 89.6666 88.3077 86.495 83.3568 83.1106 81.5225 79.8104 84.6216 77.6013 123.013 73.6416
threshold=-1579.9169921874998 -4065.7836914062495 0.004196734633296729 0.35926574468612676 0.39508715271949774 -2204.0827636718745 -979.11141967773426 0.27266487479209905 0.41622340679168707 0.27043816447258001 1.0000000180025095e-35 1.0000000180025095e-35 -1501.4999999999998 0.46955789625644689 0.067488130182027831 0.29184268414974218 1.0000000180025095e-35 1.0000000180025095e-35 0.50558277964591991 0.059684142470359809 -9926.4999999999982 0.68734893202781688 198114.75000000003 -2292.4999999999995 0.0020210299408063297 -2514.4999999999995 0.12162648886442186 16877.250000000004 450117.00000000006 0.18581931293010714
decision_type=2 2 2 10 10 2 2 2 10 10 2 2 10 10 2 10 2 2 10 2 2 10 8 10 2 10 2 10 10 2
left_child=1 7 5 8 6 -2 16 21 11 15 -8 19 -13 17 -14 22 -4 -12 20 -3 23 -1 -7 -18 -24 -10 -27 -19 -29 -5
right_child=2 3 4 29 -6 9 10 -9 25 -11 13 12 14 -15 -16 -17 18 27 -20 -21 -22 -23 24 -25 -26 26 -28 28 -30 -31
leaf_value=-2.4440468653558001 -2.3445802731744863 -2.297258634302763 -2.4082310066031232 -2.43586526757346 -2.4107910770254439 -2.2878790298728786 -2.3789364193813589 -2.467306559522048 -2.446368521827726 -2.3154888116035424 -2.356407770181725 -2.4144526315059709 -2.3462656348148094 -2.3718047137443938 -2.3936755168058075 -2.3047229711610271 -2.3795209321559612 -2.3438024623349776 -2.4116598788165118 -2.4330486575604433 -2.4007369448542808 -2.4614157048450611 -2.1767309816874172 -2.3373187490193015 -2.2467285035575562 -2.4092303055961057 -2.4367110254654016 -2.2692866451935321 -2.3308614745937097 -2.455820515359278
leaf_count=29464 2107 167 3521 10421 7031 474 3458 77979 9414 1313 1983 13024 2391 1979 8429 614 2548 1554 1684 8599 1666 14369 1462 4104 909 6612 8797 2505 1939 15490
internal_value=0 -0.301873 1.50782 0.0900126 1.20759 2.99052 1.40951 -0.570001 0.268758 3.53467 1.78834 0.481989 0.644306 2.0374 0.985733 3.98818 1.03362 2.24167 1.22672 0.0404759 1.39075 -0.345101 4.29743 1.58003 4.57837 -0.0113625 0.15133 2.47975 2.72665 -0.306186
internal_count=246007 205156 40851 83344 33972 6879 26941 121812 57433 4772 13418 32610 23844 9960 10820 3459 13523 7981 10002 8766 8318 43833 2845 6652 2371 24823 15409 5998 4444 25911
shrinkage=1


Tree=1
num_leaves=31
num_cat=0
split_feature=260 260 260 33 269 31 33 260 260 258 268 128 106 106 31 243 10 10 273 44 264 258 268 261 263 262 34 31 268 14
split_gain=7604.16 1368.92 1195.01 309.558 269.628 313.074 256.392 173.957 151.922 134.738 144.308 122.854 114.222 107.055 91.9254 85.0768 72.1213 71.8349 71.0834 70.4226 68.1759 66.4594 105.59 66.1229 64.5031 59.2106 54.7441 53.8656 53.5277 53.4509
threshold=0.054664485156536109 0.15048398822546008 0.014791865367442371 0.34496991336345678 -2926.280883789062 0.1964695751667023 0.37149165570735937 0.034197511151432998 0.20234140753746035 -4934.1574707031241 0.0020210299408063297 1.0000000180025095e-35 3.5000000000000004 3.5000000000000004 0.089686043560504927 0.026267446577548984 -10954.499999999998 -10610.499999999998 223599272.00000003 0.070700000971555724 239967288.00000003 -5069.4609374999991 0.037459274753928191 -1812.9149169921873 -197.86324310302732 0.12739494442939761 0.08664999902248384 0.1923215910792351 0.00070108904037624608 10.500000000000002
decision_type=2 2 2 10 2 10 10 2 2 2 2 2 8 8 10 2 2 2 2 10 2 2 2 2 2 2 10 10 2 8
left_child=2 4 6 7 13 11 9 14 -3 24 15 -6 18 -2 20 23 -12 -16 29 27 -4 -5 -23 -11 28 -8 -9 -17 -1 -13
right_child=1 8 3 21 5 -7 25 26 -10 10 16 12 -14 -15 17 19 -18 -19 -20 -21 -22 22 -24 -25 -26 -27 -28 -29 -30 -31
leaf_value=0.17481248615006761 -0.012200427297189509 -0.023872019087676315 0.098532574262501393 -0.0012170842352854767 0.0027761905422851812 -0.0081077464701683043 0.083787925539797539 0.050456596804770618 -0.038072912350497208 0.05257301651046116 0.13610704809710614 0.0041183949197066399 0.06788935378517362 0.010174738430415589 0.074328350584977221 0.21017210902976477 0.09366964722457298 0.032726614636235427 -0.024887607835616318 0.099547140945269119 0.031017459288549772 0.05978573239490298 0.019745285139109114 0.1845088616944362 -0.0046636682331979802 0.029551385505027807 0.020508771506851486 0.15092812449706144 0.074722427453766865 0.035429740964893007
leaf_count=190 47191 49890 4784 2630 5968 16392 1666 8980 54291 328 2574 2167 2609 8515 3767 1282 2368 2060 848 284 531 2929 7691 167 259 1034 2556 695 904 10457
internal_value=0 -0.329465 1.26985 0.93674 -0.0104468 0.22402 2.22963 1.18924 -0.624815 2.50491 2.68188 0.505389 0.669227 -0.175092 1.50474 3.30025 2.31634 1.19159 0.533461 3.57533 1.83897 0.494912 0.621751 1.99624 1.48926 1.26249 0.876967 3.80226 1.85568 0.601001
internal_count=246007 198328 47679 35928 94147 38441 11751 22678 104181 9051 7698 22049 16081 55706 11142 2756 4942 5827 13472 2261 5315 13250 10620 495 1353 2700 11536 1977 1094 12624
shrinkage=0.05


Tree=2
num_leaves=31
num_cat=0
split_feature=260 260 260 260 260 33 260 261 33 31 11 33 107 103 125 7 31 83 125 11 8 6 31 11 31 11 31 269 59 11
split_gain=6585.25 1287.96 919.727 268.095 244.102 167.162 148.696 136.741 144.917 130.976 215.777 128.95 109.407 94.6111 84.4788 100.959 81.77 78.9766 78.0004 77.0087 73.5059 68.4617 64.8779 63.9396 64.9541 63.3695 94.9246 56.1293 61.7264 54.3844
threshold=0.054664485156536109 0.15048398822546008 0.0253454614430666 0.0073711785953491935 0.098527248948812499 0.34496991336345678 0.20234140753746035 -4607.7973632812491 0.50558277964591991 0.87191471457481395 -5135.4999999999991 0.37486591935157781 8.5000000000000018 1.0000000180025095e-35 1.0000000180025095e-35 16413.750000000004 0.27043816447258001 1.0000000180025095e-35 1.0000000180025095e-35 -2783.4999999999995 450117.00000000006 360029.25000000006 0.87839630246162426 -1617.4999999999998 0.87839630246162426 -4124.4999999999991 0.12551528215408328 -682.36230468749989 0.081749998033046736 -2485.4999999999995
decision_type=2 2 2 2 2 10 2 2 10 8 10 10 8 8 2 10 10 2 2 10 8 2 8 10 8 10 10 2 10 10
left_child=2 4 3 7 9 17 29 -1 16 -2 -11 14 18 -12 15 -5 -9 -4 19 -6 21 -17 -21 -7 -25 -19 -27 -23 -29 -3
right_child=1 6 5 11 12 23 -8 8 -10 10 13 -13 -14 -15 -16 20 -18 25 -20 22 -22 27 -24 24 -26 26 -28 28 -30 -31
leaf_value=-0.006806322790457499 -0.0019073489576690963 -0.029188982612140913 0.025772300937210113 0.057829434339510322 -0.018661017217121982 0.0035725925770012813 -0.037384917591140342 0.1376209447877281 0.038986789351641266 -0.0070523906301292755 0.024179089303483642 0.042852357768529234 0.010107878613998719 0.063025151950768563 0.049517799287424065 0.088522119489233733 0.086596630002315919 0.025719489551796617 -0.027095287388451818 -0.014128726206927357 0.078429964950894895 0.10004047555879497 0.0087268697344203665 0.016544746029154886 0.058903484189570504 0.076413526222744513 0.042279675846871069 0.1762700128322624 0.069418338790966802 -0.016820745597368406
leaf_count=282 19452 25595 4454 2427 14483 5459 54291 3913 632 7790 14104 3842 8093 2285 2134 1498 1113 2167 10352 7151 2810 750 10437 3301 1753 4799 5203 963 179 24295
internal_value=0 -0.317644 1.14228 1.67347 -0.0100866 0.702713 -0.609889 2.25707 2.3617 0.188677 0.364838 1.41591 -0.185986 0.596022 1.60237 1.75113 2.53676 0.919148 -0.262087 -0.172073 1.97862 2.31068 -0.00867712 0.344374 0.633031 1.06473 1.18133 2.73551 3.19302 -0.46304
internal_count=246007 198328 47679 20543 94147 27136 104181 5940 5658 43631 24179 14603 50516 16389 10761 8627 5026 16623 42423 32071 6200 3390 17588 10513 5054 12169 10002 1892 1142 49890
shrinkage=0.05


Tree=3
num_leaves=31
num_cat=0
split_feature=260 260 260 260 268 83 243 31 254 261 243 125 258 260 106 31 8 6 248 31 14 7 125 125 106 14 258 125 41 8
split_gain=5737.36 1212.96 717.319 270.9 164.445 135.37 123.184 118.086 128.181 117.238 112.77 110.669 109.555 101.521 90.2351 87.2244 86.0368 101.327 70.6367 72.2634 68.9028 63.3663 60.5465 56.8534 49.6331 47.6709 44.4956 43.3267 42.8641 42.4087
threshold=0.054664485156536109 0.16103468835353854 0.020804788917303089 0.098527248948812499 0.0020210299408063297 1.0000000180025095e-35 0.57179951667785656 0.87191471457481395 372277728.00000006 -5179.3178710937491 0.53617310523986828 1.0000000180025095e-35 -5124.6691894531241 0.2288416922092438 3.5000000000000004 0.20472981780767444 675191.25000000012 267212.25000000006 -9471.1640624999982 0.71814978122711193 9.5000000000000018 11877.750000000002 1.0000000180025095e-35 1.0000000180025095e-35 3.5000000000000004 15.500000000000002 -4428.7895507812491 1.0000000180025095e-35 0.21939999610185626 450117.00000000006
decision_type=2 2 2 2 2 2 2 8 2 2 2 2 2 2 8 10 8 2 2 8 8 10 2 2 8 8 2 2 10 10
left_child=2 3 4 6 9 -4 7 -2 20 -1 16 14 -6 -3 18 21 17 -7 -5 -20 -9 -14 28 26 -22 -21 -11 -17 29 -19
right_child=1 13 5 11 12 10 -8 8 -10 23 -12 -13 15 -15 -16 27 -18 22 19 25 24 -23 -24 -25 -26 -27 -28 -29 -30 -31
leaf_value=0.011635807028548519 0.00139216647864285 -0.026366244148567603 0.016105061231850175 -0.02001875796151828 0.027234977569323027 0.029655341335712439 -0.010842680586207975 0.0044138864085421668 0.00099095290624425176 0.088713774028768802 0.012946744035851413 -0.024467512294547002 0.046750816615939959 -0.03927437773585344 0.011685352295438774 0.062782008898468952 0.023825044894274654 0.081283900996598657 -0.016143203757931889 -0.012157784942796101 0.032452784858216149 0.090233845579354433 0.034670536295073488 0.073277467920233957 0.062977256593181985 0.01124057121168617 0.13338136284239618 0.018884829182110721 0.035693067650293932 0.055616120814886587
leaf_count=363 15406 56977 8313 14289 1601 4060 8630 2345 6268 729 3600 14331 1080 36729 8160 2626 3759 5008 9628 4128 9037 6537 2109 703 1945 10455 2169 831 1126 3065
internal_value=0 -0.306124 1.03425 -0.0388677 1.56733 0.708052 0.177659 0.272169 0.453503 2.11275 0.845107 -0.201028 1.3748 -0.627123 -0.114019 1.48882 0.946978 1.06064 -0.190595 -0.0693522 0.646697 1.68449 1.22789 2.26539 0.763279 0.0926065 2.45349 1.05077 1.34658 1.43332
internal_count=246007 198328 47679 104622 16639 31040 43631 35001 19595 3964 22727 60991 12675 93706 46660 11074 19127 15368 38500 24211 13327 7617 11308 3601 10982 14583 2898 3457 9199 8073
shrinkage=0.05


Tree=4
num_leaves=31
num_cat=0
split_feature=260 260 260 33 33 107 260 11 11 31 128 261 260 11 31 125 266 273 10 31 260 267 11 273 7 259 269 10 8 73
split_gain=5075.06 1094.21 682.544 222.539 170.09 152.835 118.084 113.146 102.213 112.958 101.55 100.528 100.033 79.9884 73.7678 69.9553 67.8215 53.4683 61.1514 69.9556 50.3812 50.3433 49.4829 47.5001 47.1189 46.821 46.3046 45.7231 44.2005 42.7115
threshold=0.080020412802696242 0.0253454614430666 0.16103468835353854 0.34496991336345678 0.31469441950321203 8.5000000000000018 0.011281611397862436 -1716.4999999999998 -2339.4999999999995 0.13851153850555423 1.0000000180025095e-35 -5211.5212402343741 0.2359568923711777 -2292.4999999999995 0.11753201857209207 1.0000000180025095e-35 0.053621394559741027 119158388.00000001 -9495.4999999999982 0.18767199665308001 0.034197511151432998 -2940.9807128906245 -2485.4999999999995 188231944.00000003 14550.750000000002 0.0026208750205114488 -3918.4260253906245 -10610.499999999998 450117.00000000006 0.1300499960780144
decision_type=2 2 2 10 10 8 2 10 10 10 2 2 2 10 10 2 2 2 2 10 2 2 10 2 10 2 2 2 10 10
left_child=1 4 5 7 6 8 11 20 -2 15 27 -1 22 -5 -15 26 -12 18 19 25 -3 -7 -4 -6 -8 -13 -10 -9 29 -26
right_child=2 3 12 13 23 21 24 10 9 -11 16 17 -14 14 -16 -17 -18 -19 -20 -21 -22 -23 -24 -25 28 -27 -28 -29 -30 -31
leaf_value=-0.018300348039955894 -0.018045093196219979 0.043491595678068769 -0.031191207455261175 -0.004213216763984895 0.050400207090008878 0.002302843388746758 0.037227142078834471 0.034658073382383879 -0.0025459722757767093 -0.015454407702620718 0.06245777463680019 0.14015074483722137 -0.039380021613444699 0.033606549172160743 0.0061505870916270435 -0.015424528364948641 0.035186449005617911 0.037305197922142368 0.066940064516614148 0.079191423246554857 0.015389616497530085 0.025760970898723087 -0.020197321023205931 0.011680848792480132 0.086308429122209415 0.1024938208390463 0.019050690981179116 0.0002591650194646139 0.05287941910808535 0.021442026535230373
leaf_count=249 32268 2168 32634 9762 5426 7929 1653 2897 5209 15516 5891 1237 32770 5049 7774 4207 4930 380 1183 1594 11904 4758 28302 1097 3012 1744 9476 2020 2678 290
internal_value=0 0.728235 -0.383578 0.4388 1.3345 -0.135373 1.52248 0.631979 -0.208284 -0.0688159 0.830839 1.81835 -0.612379 0.165865 0.348678 0.118552 1.01214 1.88486 1.95479 2.11172 0.401763 0.228234 -0.521092 0.885444 1.24149 2.37458 0.234751 0.408438 1.37164 1.61542
internal_count=246007 72938 173069 52395 20543 79363 14020 29810 66676 34408 15738 6387 93706 22585 12823 18892 10821 6138 5758 4575 14072 12687 60936 6523 7633 2981 14685 4917 5980 3302
shrinkage=0.05


Tree=5
num_leaves=31
num_cat=0
split_feature=260 260 260 263 106 260 33 7 109 250 125 11 125 267 31 14 260 267 31 11 11 125 36 262 11 6 259 254 11 14
split_gain=4530.42 880.246 660.085 177.537 161.843 160.531 153.002 105.014 100.724 98.6551 96.0971 93.6474 88.1608 84.5559 72.3438 62.4325 62.4013 60.0586 59.6213 57.7116 56.7636 50.3691 48.9271 48.323 46.6903 42.0433 44.0288 41.627 39.2984 38.4916
threshold=0.080020412802696242 0.035313688218593604 0.17556058615446093 -5320.8176269531241 3.5000000000000004 0.0073711785953491935 0.40574790537357336 16413.750000000004 1.0000000180025095e-35 0.22000513225793841 1.0000000180025095e-35 -2149.4999999999995 1.0000000180025095e-35 -5479.4653320312491 0.12551528215408328 16.500000000000004 0.23408019542694095 -2940.9807128906245 0.82044875621795665 -1402.4999999999998 -3054.4999999999995 1.0000000180025095e-35 0.98184999823570263 0.032262127846479423 -1932.4999999999998 180994.50000000003 0.035445459187030799 152584256.00000003 -3251.4999999999995 8.5000000000000018
decision_type=2 2 2 2 8 2 10 10 2 2 2 10 2 2 10 8 2 2 8 10 10 2 10 2 10 2 2 2 10 8
left_child=1 3 4 -1 8 13 10 -7 20 -10 11 -3 18 -5 22 -11 28 -6 27 -20 -2 -22 29 25 -8 -15 -27 -9 -4 -13
right_child=2 6 16 5 17 7 24 12 9 15 -12 14 -14 23 -16 -17 -18 -19 19 -21 21 -23 -24 -25 -26 26 -28 -29 -30 -31
leaf_value=0.0056918336933755162 -0.023828674612039299 0.015869179336626411 -0.033935917609234596 -0.0094195046868990624 0.00063900902429135089 0.031595391328974848 -0.0077922163737001691 0.042303132936435305 0.015064166657672608 -0.021326781661917552 0.0046825888312709632 0.017595672550153967 0.033134151628374929 0.05080995081281342 0.024716063984891325 0.00034982655145462271 -0.038774541084448194 0.024910385343387513 0.059723022947445858 0.092135622172372034 -0.0064574423104932464 -0.024092380406264109 0.021488464876815126 0.062492799491780382 0.011911310303045002 0.10510049471065386 0.052269117544173321 0.067624495969948448 -0.022401633699025428 0.062926996330696136
leaf_count=2068 23320 9250 20596 296 10715 5948 7933 4002 7483 9116 6246 600 3327 459 6004 9902 33850 4728 2872 2520 20498 8012 1291 1834 7741 2570 401 2987 24828 4610
internal_value=0 0.668721 -0.375007 1.07759 -0.168309 1.14129 0.333171 1.00607 -0.239335 -0.0518802 0.483172 0.58946 1.1415 1.57891 0.778214 -0.199755 -0.645159 0.171936 1.2625 1.50599 -0.336317 -0.225478 1.01491 1.65363 0.0437197 1.84843 1.97033 1.06091 -0.551719 1.15733
internal_count=246007 72959 173048 29284 93774 27216 43675 21656 78331 26501 28001 21755 15708 5560 12505 19018 79274 15443 12381 5392 51830 28510 6501 5264 15674 3430 2971 6989 45424 5210
shrinkage=0.05


Tree=6
num_leaves=31
num_cat=0
split_feature=260 260 260 11 31 33 273 31 128 125 11 6 8 6 7 269 83 268 260 8 6 254 125 109 11 102 7 246 11 108
split_gain=4042.9 733.064 627.96 152.259 149.943 141.327 138.709 117.717 93.3861 85.9237 84.8425 75.7167 94.6892 86.8323 78.6902 73.8612 64.1201 63.6164 61.5259 61.2119 82.8645 57.7702 52.5992 62.2612 51.6095 48.9112 45.3853 43.7168 41.7644 41.2143
threshold=0.080020412802696242 0.034197511151432998 0.17556058615446093 -1956.4999999999998 0.13851153850555423 0.40574790537357336 177574624.00000003 0.10969879105687143 1.0000000180025095e-35 1.0000000180025095e-35 -2149.4999999999995 193536.00000000003 450117.00000000006 513612.00000000006 24752.250000000004 -4065.7836914062495 1.0000000180025095e-35 0.0020210299408063297 0.23408019542694095 450117.00000000006 508497.75000000006 152584256.00000003 1.0000000180025095e-35 1.0000000180025095e-35 -2410.4999999999995 1.0000000180025095e-35 25562.250000000004 0.074797835201025023 -2047.4999999999998 1.0000000180025095e-35
decision_type=2 2 2 10 10 10 2 10 2 2 10 2 10 2 10 2 2 2 2 8 2 2 2 2 10 8 10 2 10 2
left_child=1 6 3 22 8 9 7 11 -5 10 -3 -1 13 24 -15 -10 -12 27 -4 20 -18 -19 23 -2 -13 -17 -22 -9 -7 -14
right_child=2 5 18 4 -6 28 -8 17 15 -11 16 12 29 14 -16 25 19 21 -20 -21 26 -23 -24 -25 -26 -27 -28 -29 -30 -31
leaf_value=0.032498367816303372 -0.016948780441648707 0.015070998425549882 -0.026853284656441791 -0.01035141162897138 -0.013255250098952585 -0.0075941881905378945 0.012046375497607648 0.089288990407603561 0.00040962199867786381 0.0047817461367449755 0.014427699303447301 0.047019675577799354 0.067586217018054076 0.013084914806776291 0.13378526150684728 0.017698875884463717 0.0448682147963319 0.028869432967701426 -0.038128201932288469 0.026156638611517846 0.032531932601919923 0.051975427333297367 -0.027326006815009959 -0.00043047580038585903 0.080121961722465052 0.045581918825643587 0.11899339233033446 0.039843322492998018 0.010875166641463428 0.037567138935143733
leaf_count=1722 28247 9464 45424 6628 18432 7773 2540 871 7389 6385 2972 1515 1833 138 883 8724 5147 7187 33850 3835 219 4463 10540 11365 3893 2449 704 683 8187 2545
internal_value=0 0.618306 -0.3623 -0.161162 -0.00246701 0.320272 0.991883 1.0551 0.177823 0.459854 0.556792 1.26124 1.35191 1.57984 2.36048 0.307055 0.729642 0.843193 -0.630686 0.856464 1.06274 0.755022 -0.305453 -0.242803 1.42531 0.482873 1.97388 1.38616 0.0438076 1.00269
internal_count=246007 72959 173048 93774 43622 44686 28273 25733 25190 28726 22341 12529 10807 6429 1021 18562 12877 13204 79274 9905 6070 11650 50152 39612 5408 11173 923 1554 15960 4378
shrinkage=0.05


Tree=7
num_leaves=31
num_cat=0
split_feature=260 260 260 11 31 263 33 260 125 269 62 7 7 8 267 125 103 6 31 83 260 125 109 76 264 13 11 8 7 108
split_gain=3614.2 616.687 596.656 152.323 137.406 126.164 120.265 119.434 86.2773 77.7844 77.6284 70.4996 69.6432 124.061 57.6133 52.117 52.0804 48.742 48.1882 47.248 45.6218 45.0625 57.5246 39.6703 38.5205 39.8119 36.885 36.8151 41.0526 35.81
threshold=0.080020412802696242 0.035313688218593604 0.18237596750259402 -2339.4999999999995 0.13851153850555423 -5320.8176269531241 0.48575231432914739 0.011281611397862436 1.0000000180025095e-35 -4065.7836914062495 0.061650000512599952 13502.250000000002 16503.750000000004 450117.00000000006 -6288.8374023437491 1.0000000180025095e-35 1.0000000180025095e-35 481248.00000000006 0.27043816447258001 1.0000000180025095e-35 0.23408019542694095 1.0000000180025095e-35 1.0000000180025095e-35 0.11074999719858171 35070488.000000007 -4171.4999999999991 -3025.4999999999995 450117.00000000006 21039.750000000004 1.0000000180025095e-35
decision_type=2 2 2 10 10 2 10 2 2 2 10 10 10 8 2 2 8 2 10 2 2 2 2 10 2 2 10 8 10 2
left_child=1 5 3 21 8 -1 10 14 9 29 12 -9 -3 17 -7 23 -11 -14 19 -16 -4 22 -2 24 -13 -26 -21 28 -27 -5
right_child=2 6 20 4 -6 7 -8 11 -10 16 -12 15 13 -15 18 -17 -18 -19 -20 26 -22 -23 -24 -25 25 27 -28 -29 -30 -31
leaf_value=0.0045651736366493362 -0.017977680883281312 0.0098329405316264495 -0.027270577844914757 0.011561492381855387 -0.013263653434520151 -0.014712730652034937 -0.0018114752593993981 0.020125207810846455 -0.01341410923664195 0.013528406037555741 0.0074117726780306859 0.03749650390392828 0.03966688823334575 0.017629492267953528 0.046429761878904435 0.026122503145281212 0.039342969841478517 0.071844431965064778 0.04107580016041202 0.046837974785162585 -0.037477990997204891 -0.027888336315856462 -0.0016543948222598193 0.022396693819445857 0.038854133755352481 0.055003573006914067 0.080658294563074953 0.050595886948365622 0.090274087496409874 -0.011527453824871796
leaf_count=2068 27971 6087 38671 4133 21639 269 11190 3751 6403 10755 10541 3232 5233 8866 1503 3147 3001 1758 1711 773 33850 10043 10793 1225 1955 1332 4012 2613 1693 5789
internal_value=0 0.573008 -0.34986 -0.168988 -0.0301451 0.89854 0.292005 0.94858 0.126881 0.224727 0.39327 0.802208 0.507841 0.626621 1.22602 0.893821 0.390181 0.958616 1.26333 1.37335 -0.637895 -0.324935 -0.266523 0.98342 1.04213 1.15806 1.50719 1.28641 1.50665 -0.0381273
internal_count=246007 72959 173048 100527 51720 29284 43675 27216 30081 23678 32485 18948 21944 15857 8268 15197 13756 6991 7999 6288 72521 48807 38764 12050 10825 7593 4785 5638 3025 9922
shrinkage=0.05


Tree=8
num_leaves=31
num_cat=0
split_feature=260 260 260 106 263 11 31 260 260 10 260 270 109 31 14 7 34 11 261 11 83 14 252 11 264 262 259 11 273 109
split_gain=3236.42 568.276 521.308 138.017 105.887 102.874 113.825 98.2308 91.9713 69.2459 59.2399 56.3927 55.1633 64.9282 49.6287 48.933 47.6735 47.3176 45.6176 44.3467 41.0754 40.8724 40.5903 39.679 38.4242 37.0449 37.8078 35.6369 38.805 33.5227
threshold=0.080020412802696242 0.17556058615446093 0.035313688218593604 3.5000000000000004 -5320.8176269531241 -2149.4999999999995 0.13211315870285037 0.0099859111942350882 0.11172719299793245 -10128.499999999998 0.23408019542694095 60642884.000000007 1.0000000180025095e-35 0.56319808959960949 7.5000000000000009 16413.750000000004 0.060850000008940704 -1437.4999999999998 -5211.5212402343741 -2315.4999999999995 1.0000000180025095e-35 4.5000000000000009 0.32091578841209417 -3251.4999999999995 46332974.000000007 0.012878560461103918 0.0026208750205114488 -877.49999999999989 67051470.000000007 1.0000000180025095e-35
decision_type=2 2 2 8 2 10 10 2 2 2 2 2 2 8 8 10 10 10 2 10 2 8 2 10 2 2 2 10 2 2
left_child=2 3 4 8 -1 22 14 18 12 15 23 -8 -2 -14 -7 -9 -16 -5 -6 -10 -21 -17 -4 -3 -19 26 -20 -15 -29 -23
right_child=1 10 5 17 7 6 11 9 19 -11 -12 -13 13 27 16 21 -18 24 25 20 -22 29 -24 -25 -26 -27 -28 28 -30 -31
leaf_value=0.004320652757118972 -0.0083067203158336093 -0.032080656055417815 0.0075287099282872645 -0.00087115327441417546 -0.017749635858801804 0.0028936518487964243 -0.002196847993261994 0.026715336079754372 -0.021261861447435422 0.020420964256300311 -0.036823789567544715 0.020489523873579635 -0.012503261311874063 0.011054336438774249 0.043419479616063919 0.015906292556128451 0.018040608151645651 -0.0035158173772246743 0.090265808665852404 -0.023300869648385968 -0.0055108487508736329 0.04252419419585806 -0.013839232883370753 -0.020079689067414155 0.027411062874855896 0.048164544904018586 0.059187486426595805 0.01110781581714845 0.064648449024817728 0.059897445978732582
leaf_count=2068 17548 20596 15247 8727 242 1421 6481 3851 26441 4502 33850 6840 3310 4327 7121 911 2833 1715 919 6244 18738 6180 3732 24828 5001 3648 2571 745 978 4392
internal_value=0 -0.337689 0.532222 -0.147193 0.825242 0.273944 0.41448 0.869653 -0.214499 0.748245 -0.602135 0.188942 -0.0396797 0.186123 0.649218 0.84576 0.728881 0.165533 1.13544 -0.311998 -0.198943 0.942523 0.0740058 -0.508779 0.388236 1.16751 1.36165 0.400756 0.827484 0.995363
internal_count=246007 173048 72959 93774 29284 43675 24696 27216 78331 19836 79274 13321 26908 9360 11375 15334 9954 15443 7380 51423 24982 11483 18979 45424 6716 7138 3490 6050 1723 10572
shrinkage=0.05


Tree=9
num_leaves=31
num_cat=0
split_feature=260 260 260 125 11 83 31 11 31 268 269 273 31 257 109 261 102 270 260 266 73 11 40 268 33 11 108 14 14 14
split_gain=2902.23 539.78 450.08 137.222 139.071 105.268 97.004 87.3026 89.1662 80.3494 70.229 60.5923 62.2972 59.6889 49.1725 45.6907 45.4983 44.9257 44.0225 39.7759 56.1024 40.9667 39.2922 36.6094 36.5344 35.5244 34.5689 46.1052 33.2029 30.2845
threshold=0.080020412802696242 0.18237596750259402 0.039612822234630592 1.0000000180025095e-35 -2459.4999999999995 1.0000000180025095e-35 0.13851153850555423 -2149.4999999999995 0.13211315870285037 0.0013317356351763012 -4065.7836914062495 179046048.00000003 0.20844538509845736 0.0003279999655205757 1.0000000180025095e-35 -1592.7079467773435 1.0000000180025095e-35 69291548.000000015 0.23408019542694095 0.026703405193984512 0.04735000059008599 -4067.4999999999995 0.083750002086162581 0.0074898758903145799 0.48034915328025823 -1774.4999999999998 1.0000000180025095e-35 24.500000000000004 9.5000000000000018 15.500000000000002
decision_type=2 2 2 2 10 2 10 10 10 2 2 2 10 2 2 2 8 2 2 2 10 10 10 2 10 10 2 8 8 8
left_child=2 3 5 4 14 23 10 24 22 13 26 12 19 15 -2 -7 28 -10 25 20 21 -11 -9 -1 -4 -3 27 -6 -12 -16
right_child=1 18 7 -5 6 9 -8 8 17 11 16 -13 -14 -15 29 -17 -18 -19 -20 -21 -22 -23 -24 -25 -26 -27 -28 -29 -30 -31
leaf_value=0.035296732456137174 -0.017019659294822829 -0.030484301999904914 0.00695732652795375 -0.020831994488466621 -0.0077375216800045585 -0.0078352847857180736 -0.0088174027308702448 0.035535791843105152 -0.0016054153129288493 0.029876726180940696 -0.0093292296918580618 0.0092931232463284493 0.0293475110839439 0.076920673739130252 -0.014145168585215554 0.081848041653380554 0.035918246180546863 0.019875041891572291 -0.036165557694729907 0.034778755437789924 0.03197914094589567 0.06335159370327012 0.013378382854858255 0.014131797223089241 -0.011138936118554148 -0.017545891340430299 -0.01137256377534451 0.031471997514774662 0.016816874065084541 0.0069280582016775852
leaf_count=2657 27176 25086 12202 23589 2274 382 15027 7172 6841 945 1887 1804 7507 1636 4158 135 3069 5191 33850 4607 2192 5498 3094 5777 5319 13585 6021 2017 9174 6135
internal_value=0 -0.325783 0.495298 -0.154635 -0.0791011 0.737063 0.0704672 0.230311 0.36632 0.832328 0.206711 0.772554 0.814163 1.31412 -0.251859 0.449912 0.360117 0.155182 -0.609488 0.932461 1.04263 1.17643 0.581801 0.436273 0.0388023 -0.517026 -0.039591 0.218365 0.24923 -0.0294724
internal_count=246007 173048 72959 100527 76938 33140 39469 39819 22298 24706 24442 22553 20749 2153 37469 517 14130 12032 72521 13242 8635 6443 10266 8434 17521 38671 10312 4291 11061 10293
shrinkage=0.05


Tree=10
num_leaves=31
num_cat=0
split_feature=260 260 260 33 125 33 128 11 11 128 31 31 273 258 108 14 260 250 11 14 55 6 108 254 11 8 12 31 83 23
split_gain=2680.04 554.234 366.427 138.109 109.316 96.0239 95.3684 94.998 82.1819 66.6483 63.1456 52.1737 51.0182 50.1252 50.0193 48.4714 48.3032 45.6039 45.3576 44.011 46.4605 41.6008 40.0042 35.8128 35.1535 33.8295 33.0656 32.0786 32.0598 30.7855
threshold=0.099489260464906706 0.031967425718903549 0.18237596750259402 0.47674952447414404 1.0000000180025095e-35 0.51459455490112316 1.0000000180025095e-35 -2339.4999999999995 -2002.4999999999998 1.0000000180025095e-35 0.75620439648628246 0.24768607318401339 142985952.00000003 -4671.8417968749991 1.0000000180025095e-35 11.500000000000002 0.2378642484545708 0.04547454975545407 -722.49999999999989 26.500000000000004 0.062500001862645163 312779.25000000006 1.0000000180025095e-35 149780880.00000003 -1774.4999999999998 675191.25000000012 -3605.4999999999995 0.18767199665308001 1.0000000180025095e-35 1.5000000000000002
decision_type=2 2 2 10 2 10 2 10 10 2 8 10 2 2 2 8 2 2 10 8 10 2 2 2 10 8 2 10 2 2
left_child=1 5 4 6 7 9 -3 -2 -8 28 21 12 15 14 -11 -9 24 29 -5 -12 22 -10 26 -19 -4 -23 -21 -20 -1 -15
right_child=2 3 16 18 -6 -7 8 11 10 13 19 -13 -14 17 -16 -17 -18 23 27 20 -22 25 -24 -25 -26 -27 -28 -29 -30 -31
leaf_value=0.0093735413734584421 -0.0137401009137645 0.0026047019113845521 -0.029640509931242471 -0.0073611065698443202 -0.022992172600285007 0.01223501279856417 0.010430747784296514 -0.0092259813817631049 -0.00018623319935809021 0.06014957383222861 0.019316378464023017 -0.009813588027941092 -0.0063100411390227366 0.011113741080512992 0.018389777775876155 0.019046560820050337 -0.036094842191076192 0.030808298979968514 0.029808887621956194 0.049499737369043631 0.023962301802081368 0.0334039260836511 0.040302351229045713 0.052278423526679718 -0.016938255375443526 0.0027244278008936905 0.093774987810080826 -0.0031327302804084267 0.033404587123723004 0.058046554839362732
leaf_count=1755 31729 13346 26378 15223 19367 3493 15644 2542 3034 807 2995 10647 7054 269 2650 9863 31907 4163 1885 832 2313 3790 2759 2843 14271 1491 780 1846 4170 6161
internal_value=0 0.40343 -0.366966 0.211668 -0.197686 0.740437 0.306151 -0.121355 0.399092 0.802716 0.544994 0.0249709 0.133859 0.891623 0.569315 0.269025 -0.593932 0.966352 -0.055757 0.711375 0.851592 0.318345 1.03655 0.793388 -0.501287 0.500563 1.4216 0.291757 0.531408 1.12242
internal_count=246007 92249 153758 65938 81202 26311 46984 61835 33638 22818 17994 30106 19459 16893 3457 12405 72556 13436 18954 9679 6684 8315 4371 7006 40649 5281 1612 3731 5925 6430
shrinkage=0.05


Tree=11
num_leaves=31
num_cat=0
split_feature=260 260 260 33 125 11 7 8 33 128 14 109 81 258 258 260 11 8 7 7 269 7 6 256 10 128 8 12 33 51
split_gain=2418.69 476.895 349.405 122.28 108.805 91.4716 85.2844 123.154 81.4186 55.7394 52.6003 60.8157 50.837 49.5574 42.6813 40.8977 40.7596 39.4914 92.1814 37.8364 37.2724 36.6503 38.0608 35.4785 35.4551 33.0147 31.1248 37.1465 32.0544 35.1179
threshold=0.099489260464906706 0.031967425718903549 0.18635267019271853 0.47674952447414404 1.0000000180025095e-35 -2339.4999999999995 16049.250000000002 675191.25000000012 0.51459455490112316 1.0000000180025095e-35 11.500000000000002 1.0000000180025095e-35 -1160.4999999999998 -2529.7343749999995 -5124.6691894531241 0.2378642484545708 -722.49999999999989 675191.25000000012 23852.250000000004 14996.250000000002 -442.34005737304682 26147.250000000004 331877.25000000006 0.010635154321789743 -12050.499999999998 1.0000000180025095e-35 450117.00000000006 -883.49999999999989 0.31469441950321203 0.76155000925064098
decision_type=2 2 2 10 2 10 10 8 10 2 8 2 10 2 2 2 10 10 10 10 2 10 2 2 2 2 10 2 10 10
left_child=1 8 4 6 5 -2 25 10 9 -1 -8 21 -7 26 -11 -4 -5 18 -14 -10 24 -12 -23 -24 -16 -3 27 -13 29 -29
right_child=2 3 15 16 -6 12 7 -9 19 14 11 13 17 -15 20 -17 -18 -19 -20 -21 -22 22 23 -25 -26 -27 -28 28 -30 -31
leaf_value=0.024750946707285261 -0.013555446237250772 -0.014522776233183383 -0.024912840700859817 -0.0070374157864149861 -0.022821305419524679 -0.0099518715540414474 0.0085373809856501524 0.0023734936453353676 -0.018900668925242576 0.022874284993646299 0.014296722156583896 0.054045054737901381 -0.00080456498214054794 0.023197571623161765 0.04581875730046589 -0.035436762884919211 0.013685602324977134 -0.0091961407015032255 0.027738815844082873 0.020387648562128172 0.051948449408924763 -0.021388939635676889 0.23530804421811774 0.035111524239207187 0.027469081234400429 0.0067760981836023837 0.032943995041059979 0.15172599996470709 0.027453517835342969 -0.024259389138880035
leaf_count=5925 33419 2941 36747 15223 20255 10441 4755 10179 823 2518 7986 2233 9939 2745 4810 31907 3731 4671 6379 2670 5484 355 21 4975 4081 8837 1564 257 101 35
internal_value=0 0.377372 -0.354499 0.199252 -0.1974 -0.122973 0.287149 0.370175 0.685023 0.741125 0.494375 0.567629 0.0178717 0.81473 0.820856 -0.591474 -0.0531547 0.122157 0.20717 0.230228 0.875602 0.431596 0.647228 0.722487 0.753243 0.035874 1.03466 1.24444 2.14088 2.65599
internal_count=246007 92249 153758 65938 85104 64849 46984 35206 26311 22818 25027 20272 31430 6935 16893 68654 18954 20989 16318 3493 14375 13337 5351 4996 8891 11778 4190 2626 393 292
shrinkage=0.05


Tree=12
num_leaves=31
num_cat=0
split_feature=260 260 260 125 260 33 11 6 128 42 11 31 33 273 11 83 260 125 54 2 83 108 11 33 2 58 246 108 31 11
split_gain=2184.07 415.281 332.246 101.646 92.1004 84.7182 83.8993 70.1905 61.4506 61.1464 54.8942 48.9932 48.7127 44.4595 40.1895 46.6423 40.1334 37.3407 36.3267 35.5277 32.8673 30.6048 30.3108 29.0724 29.0018 29.9203 32.9115 26.822 54.1551 26.7406
threshold=0.099489260464906706 0.04360602609813214 0.18635267019271853 1.0000000180025095e-35 0.011281611397862436 0.47674952447414404 -2339.4999999999995 247518.00000000003 1.0000000180025095e-35 0.22269999980926516 -1452.4999999999998 0.24768607318401339 0.39881096780300146 142985952.00000003 -2485.4999999999995 1.0000000180025095e-35 0.2378642484545708 1.0000000180025095e-35 0.086199998855590834 1.0000000180025095e-35 1.0000000180025095e-35 1.0000000180025095e-35 -1774.4999999999998 0.41973263025283819 1.0000000180025095e-35 0.027049999684095386 0.26727649569511419 1.0000000180025095e-35 0.10969879105687143 -4378.4999999999991
decision_type=2 2 2 2 2 10 10 2 2 10 10 10 10 2 10 2 2 2 10 2 2 2 10 10 2 8 2 2 10 10
left_child=1 4 3 6 14 8 23 -6 -3 12 -10 13 17 20 -1 -16 22 -9 19 -12 -8 24 -4 -2 25 26 -15 28 29 -7
right_child=2 5 16 -5 7 27 11 9 10 -11 18 -13 -14 21 15 -17 -18 -19 -20 -21 -22 -23 -24 -25 -26 -27 -28 -29 -30 -31
leaf_value=0.025126920538886568 -0.0060051474889383678 -0.00010152708391033237 -0.028779009891430687 -0.022125290800987414 0.009378470956377229 -0.0062701921962189282 -0.0037955446171014044 0.038084767771122435 0.0085276635180941123 0.0011164445436508618 0.036894543869379397 -0.0097728253724333851 0.017171864845321926 0.035390552896114084 0.023967845282971079 0.0514679930881373 -0.034774529545192889 0.019088290050374299 0.0089929277175492123 0.01445521523999602 0.017331860637851412 -0.016123764931826344 -0.016080213569937277 -0.017929936156474088 -0.0080532044878539582 0.022310092644057814 0.29622770277547467 -0.010062133469849003 -0.010567881802911116 0.032965708594395307
leaf_count=2485 13302 10964 23939 20255 6231 829 3170 11652 15896 1856 5390 11055 5500 37 1421 4882 31907 3062 3361 2858 9707 4438 12808 20117 1718 1275 30 10240 3595 2027
internal_value=0 0.353379 -0.342274 -0.189247 0.57577 0.141701 -0.117526 0.482491 0.225503 0.560298 0.307646 0.016879 0.60726 0.119468 0.805285 0.912069 -0.577228 0.690209 0.4734 0.586566 0.243241 -0.117402 -0.484119 -0.260663 0.169348 0.573822 2.9767 -0.0819718 0.100587 0.457231
internal_count=246007 92249 153758 85104 37089 55160 64849 28301 38469 22070 27505 31430 20214 20375 8788 6303 68654 14714 11609 8248 12877 7498 36747 33419 3060 1342 67 16691 6451 2856
shrinkage=0.05


Tree=13
num_leaves=31
num_cat=0
split_feature=260 260 260 7 8 125 269 7 8 33 64 108 260 241 14 81 258 83 258 14 81 8 7 270 48 8 7 13 5 108
split_gain=1973.63 363.226 315.945 98.7475 134.047 88.6277 76.5255 67.7084 83.4565 62.7953 50.6532 49.6469 45.1141 41.7524 41.7139 40.4479 39.7514 38.6017 37.9885 37.0505 34.5607 34.1847 33.3039 32.5579 32.3438 31.2242 46.3423 31.1576 29.9566 34.1669
threshold=0.099489260464906706 0.034197511151432998 0.18237596750259402 16049.250000000002 450117.00000000006 1.0000000180025095e-35 -4065.7836914062495 26318.250000000004 315686.25000000006 0.51459455490112316 0.97545000910758983 1.0000000180025095e-35 0.2378642484545708 0.50600016117095958 34.500000000000007 -744.49999999999989 -2643.287963867187 1.0000000180025095e-35 -2464.028686523437 11.500000000000002 -1160.4999999999998 900045.00000000012 14996.250000000002 11422387.000000002 0.023649999871850017 675191.25000000012 21039.750000000004 -362.49999999999994 180045.00000000003 1.0000000180025095e-35
decision_type=2 2 2 10 8 2 2 10 10 10 10 2 2 2 8 10 2 2 2 8 10 10 10 2 10 10 10 2 2 2
left_child=1 9 5 27 7 6 11 15 -9 10 17 14 -4 18 -2 -5 28 -1 20 -6 -8 23 -11 -19 -17 26 -22 -3 29 -10
right_child=2 3 12 4 19 -7 13 8 16 22 -12 -13 -14 -15 -16 24 -18 21 -20 -21 25 -23 -24 -25 -26 -27 -28 -29 -30 -31
leaf_value=0.023367071989526752 -0.011084951399518039 -0.0049661069324239537 -0.023004526096789664 0.0048371468271067829 -0.0077244985307767661 -0.020888474654415165 -0.0015122140652114432 -0.0012347772685252854 0.097865127487010206 -0.017337972585165173 0.022477011182552135 -0.015819637648908286 -0.034108302072655916 -0.011547659890808377 0.011175978648793151 0.031861066062229208 0.029704129928484133 0.054699171843564244 -0.00822210317610742 0.0076884558106489215 0.0087404175696607755 0.010792515325854934 0.017847285542721719 0.037354591766480927 0.0089147358381524554 -0.0033200213663202348 0.038167190425426767 0.031230809330167406 0.036211392104509785 0.05223906226417703
leaf_count=3975 7046 15630 40649 5823 6184 19367 4298 1367 718 908 8516 26303 31907 5838 5628 4790 2352 2295 4081 21439 3373 769 2917 8951 2819 1756 3512 727 1011 1058
internal_value=0 0.331305 -0.33033 0.167566 0.246096 -0.173489 -0.105383 0.454183 0.730822 0.579639 0.626336 -0.215685 -0.551632 0.0611623 -0.0189672 0.314372 0.918775 0.717003 0.14728 0.0862031 0.242353 0.791025 0.200789 0.827914 0.474196 0.371427 0.47841 -0.0660149 1.17891 1.43106
internal_count=246007 92249 153758 63918 47561 81202 61835 19938 6506 28331 24506 38977 72556 22858 12674 13432 5139 15990 17020 27623 12939 12015 3825 11246 7609 8641 6885 16357 2787 1776
shrinkage=0.05


Tree=14
num_leaves=31
num_cat=0
split_feature=260 260 260 125 11 33 33 31 81 123 14 62 253 6 8 6 11 31 31 14 31 56 83 11 266 254 260 33 272 246
split_gain=1784.05 323.091 301.069 99.1778 89.2994 84.4471 67.5083 64.6713 52.6881 51.979 44.4225 42.5969 38.898 38.6291 44.5749 42.8674 38.5374 44.6183 37.4327 36.9465 36.9714 32.1873 29.869 30.0786 29.8595 28.9967 26.8008 26.3784 26.0987 25.5523
threshold=0.099489260464906706 0.045539475977420814 0.19456095248460772 1.0000000180025095e-35 -2783.4999999999995 0.31469441950321203 0.48034915328025823 0.20844538509845736 -1160.4999999999998 1.0000000180025095e-35 12.500000000000002 0.054349999874830253 -11114.353515624998 193536.00000000003 450117.00000000006 511051.50000000006 -1599.4999999999998 0.057458007708191879 0.24768607318401339 8.5000000000000018 0.15037450939416888 0.22914999723434451 1.0000000180025095e-35 -3115.4999999999995 0.029940224252641204 100250156.00000001 0.2378642484545708 0.50918826460838329 -6937.1535644531241 0.062926702201366438
decision_type=2 2 2 2 10 10 10 10 10 2 8 10 2 2 10 2 10 10 10 8 10 10 2 8 2 2 2 10 2 2
left_child=1 5 3 4 28 7 9 13 -6 -3 -10 19 -12 -1 15 22 27 -18 -14 -11 -21 -9 -15 -24 -25 -19 -4 -7 -2 -16
right_child=2 6 26 -5 8 16 -8 21 10 11 12 -13 18 14 29 -17 17 25 -20 20 -22 -23 23 24 -26 -27 -28 -29 -30 -31
leaf_value=0.016901377418197343 -0.023707852775678859 0.0022530212674406881 -0.024058607924717718 -0.021564448700057609 -0.009833485492449015 0.014735506642602571 -0.0044003526906467921 0.021887098636803371 -0.010664563679723188 -0.001414762938662697 -0.015876208212060997 0.0039138703095126437 0.01761574705436968 0.022567712026426698 0.040158880749263742 0.064532855857804036 0.037620233176271861 -0.0047811494066942462 -0.0012169719253080444 0.031195573833891058 0.012371756305552744 -0.0098889185687700554 0.012515279521204526 0.053223011150022051 0.028270100566329993 0.021499926596188233 -0.033438301491597315 -0.0048173997359203004 -0.01057421727514174 0.020092364385614667
leaf_count=2280 8669 16533 29058 22276 13186 3772 15991 8036 5143 2008 2132 6872 11573 1796 1688 1311 2536 1471 5775 6609 5264 790 541 3271 1320 3124 31907 3249 24039 3787
internal_value=0 0.310846 -0.318644 -0.187272 -0.118666 0.494972 0.116704 0.588016 0.00219396 0.191661 0.102828 0.301761 0.183214 0.689321 0.741749 0.864495 0.299321 0.451479 0.238951 0.4054 0.473201 0.384955 0.775379 0.874124 0.941514 0.263231 -0.574108 0.129916 -0.278449 0.542769
internal_count=246007 92249 153758 92793 70517 38972 53277 24820 37809 37286 24623 20753 19480 15994 13714 8239 14152 7131 17348 13881 11873 8826 6928 5132 4591 4595 60965 7021 32708 5475
shrinkage=0.05


Tree=15
num_leaves=31
num_cat=0
split_feature=269 268 250 31 11 257 83 256 266 8 8 64 1 123 143 7 11 107 8 125 268 253 11 31 12 14 257 83 268 128
split_gain=1514.66 319.137 225.358 126.661 110.09 88.6912 72.4379 62.5365 58.3903 56.1719 88.323 55.3011 42.8512 40.0138 42.9622 39.8626 38.1433 36.3699 34.1988 33.1768 33.1635 33.1166 28.8997 27.9671 27.5441 27.2517 25.6587 25.6462 25.334 25.1854
threshold=-2812.9619140624995 0.19251437485218051 0.086752306669950499 0.33972473442554479 -1956.4999999999998 0.13705069571733478 1.0000000180025095e-35 0.16333048790693286 0.27832871675491339 450117.00000000006 324409.50000000006 0.98335000872612011 1.0000000180025095e-35 1.0000000180025095e-35 1.0000000180025095e-35 21332.250000000004 -2485.4999999999995 4.5000000000000009 146250.00000000003 1.0000000180025095e-35 0.038655905053019531 -5308.3088378906241 -2024.4999999999998 0.11753201857209207 -462.49999999999994 12.500000000000002 0.13797436654567721 1.0000000180025095e-35 0.15951895713806155 1.0000000180025095e-35
decision_type=2 2 2 10 10 2 2 2 2 8 10 10 2 2 2 10 10 8 10 2 2 2 10 8 2 8 2 2 2 2
left_child=1 4 5 6 19 11 -4 17 16 10 18 12 13 23 -15 -12 -3 27 -8 26 -5 -17 -7 -2 -11 -18 -1 -6 -19 -22
right_child=2 8 3 20 7 22 9 -9 -10 24 15 -13 -14 14 -16 21 25 28 -20 -21 29 -23 -24 -25 -26 -27 -28 -29 -30 -31
leaf_value=-0.0059081316400737219 0.073663343224337957 -0.025128778784250738 0.00055726207452042422 0.0066259926361757638 -0.012184613595171027 -0.010282174633773549 -0.0033154990100410123 -0.01001391613049913 -0.030591177163885114 0.0055071671127601652 0.0093764195741509841 0.013137486998875481 0.0087335935671955418 0.039543732972150386 0.0084377691724549213 0.063149502415194667 -0.025699275557238395 0.026191261152920899 0.019332547136288653 -0.022406747730815781 -0.022783652573452308 0.035089862656169195 0.017643484703439072 0.022642604768485865 0.034781513096444443 -0.0078364827815064295 -0.016585873528845399 0.0062436705091647119 0.0051407612642879524 -0.0047358248233229632
leaf_count=25320 168 22064 9979 4218 3418 2381 2328 11846 38417 10035 953 4549 1791 10336 923 1718 4955 4219 7950 10744 4632 2659 1563 7442 959 14747 14291 11474 3257 6671
internal_value=0 -0.273714 0.309003 0.16062 -0.116455 0.493802 0.258534 0.0447369 -0.481731 0.344934 0.466883 0.546616 0.60597 0.642569 0.742316 0.7925 -0.374867 0.150917 0.287079 -0.239387 -0.123167 0.915277 0.0349817 0.482256 0.161552 -0.24534 -0.188963 0.0423744 0.350718 -0.234091
internal_count=246007 164752 81255 52102 84569 29153 36581 34214 80183 26602 15608 25209 20660 18869 11259 5330 41766 22368 10278 50355 15521 4377 3944 7610 10994 19702 39611 14892 7476 11303
shrinkage=0.05


Tree=16
num_leaves=31
num_cat=0
split_feature=260 260 260 107 123 33 128 253 33 10 261 14 76 37 14 108 80 108 11 258 14 108 258 81 6 8 6 248 130 258
split_gain=1458 265.625 257.476 89.8725 75.3543 62.1394 60.1621 71.849 56.8567 49.1791 51.5715 47.8783 42.8867 39.9459 39.893 40.0356 36.6061 34.1667 30.6979 30.4772 28.416 40.0055 30.0683 27.6079 26.4517 57.385 47.2655 26.2874 29.4631 25.8179
threshold=0.10157686471939088 0.19456095248460772 0.04172830097377301 6.5000000000000009 1.0000000180025095e-35 0.37486591935157781 1.0000000180025095e-35 -10359.106445312498 0.54333993792533886 -9495.4999999999982 -496.92625427246088 12.500000000000002 0.061249999329447753 0.79260000586509716 25.500000000000004 1.0000000180025095e-35 1.0000000180025095e-35 1.0000000180025095e-35 -1665.4999999999998 -4383.2998046874991 17.500000000000004 1.0000000180025095e-35 -3915.079223632812 -1251.4999999999998 305977.50000000006 450117.00000000006 513612.00000000006 -4674.2014160156241 1.0000000180025095e-35 -5165.1457519531241
decision_type=2 2 2 8 2 10 2 2 10 2 2 8 10 10 8 2 10 2 10 2 8 2 2 10 2 8 2 2 2 2
left_child=2 3 5 6 24 9 -2 -8 12 10 13 -9 14 20 -6 -16 18 -13 -5 -19 -1 27 -23 -21 -4 26 -26 28 -22 -17
right_child=1 -3 4 16 8 -7 7 11 -10 -11 -12 17 -14 -15 15 29 -18 19 -20 23 21 22 -24 -25 25 -27 -28 -29 -30 -31
leaf_value=0.016600102549128162 -0.02180290782979416 -0.027497054712478326 -0.0099990715315968065 -0.0074960680082341276 0.0071491613351966181 0.011463036754464173 -0.019876844037963436 -0.017605482665288878 -0.0040748891126400752 0.011445609198037948 0.040558634106927657 0.010648285853542147 0.0019603041552383347 0.0043193066095473954 0.036690575528168956 -0.0080788880002273383 0.030978613853379466 -0.014098264203630632 0.008884354294065205 -0.011249472371925215 0.072194040667152806 0.014867863906720812 0.032368346414765749 0.0092134709374720476 0.0070862179120167847 -0.0048380544265788144 0.042992372942516691 0.025925731548559556 0.039483521654476786 0.020163835790219093
leaf_count=4080 21093 61106 8268 9477 6473 9730 16995 7629 6977 3997 4022 7631 6410 1861 3857 1103 1544 8055 7470 3994 782 3597 4305 6865 4328 12484 1358 1238 1420 7858
internal_value=0 -0.304151 0.266425 -0.178524 0.109704 0.442287 -0.245273 -0.174248 0.216931 0.50855 0.560927 -0.0747908 0.284569 0.488055 0.360687 0.465242 0.05799 0.002341 0.00596758 -0.0902874 0.533461 0.605142 0.492752 0.040435 -0.0325593 0.0418593 0.323522 0.850395 1.02406 0.339336
internal_count=246007 151859 94148 90753 59116 35032 72262 51169 32678 25302 21305 34174 25701 17283 19291 12818 18491 26545 16947 18914 15422 11342 7902 10859 26438 18170 5686 3440 2202 8961
shrinkage=0.05


Tree=17
num_leaves=31
num_cat=0
split_feature=260 260 260 11 31 107 123 31 109 14 254 33 32 80 11 254 272 128 260 14 108 273 14 33 267 14 78 7 258 7
split_gain=1326.76 281.703 198.354 85.3258 109.309 81.7315 59.681 52.0179 47.8688 52.3072 43.9429 38.7128 42.7516 35.2411 35.0982 54.7738 35.0645 32.4893 31.5694 30.7883 39.8087 36.3657 28.706 28.2386 26.2309 27.4687 26.0478 25.9185 25.8399 25.5515
threshold=0.11683927476406099 0.04172830097377301 0.19456095248460772 -1956.4999999999998 0.12551528215408328 8.5000000000000018 1.0000000180025095e-35 0.18767199665308001 1.0000000180025095e-35 13.500000000000002 127610912.00000001 0.22952115535736087 0.63718163967132579 1.0000000180025095e-35 -1891.4999999999998 96756732.000000015 -6663.3649902343741 1.0000000180025095e-35 0.06955470517277719 10.500000000000002 1.0000000180025095e-35 117190712.00000001 11.500000000000002 0.34987555444240576 -1003.3316650390624 17.500000000000004 1.0000000180025095e-35 14550.750000000002 -2497.324340820312 12377.250000000002
decision_type=2 2 2 10 10 8 2 10 2 8 2 8 8 10 10 2 2 2 2 8 2 2 8 10 2 8 10 10 2 10
left_child=1 6 5 16 19 8 11 14 27 -10 17 12 -1 -7 -8 -16 -3 -6 24 -5 29 -22 -18 -9 25 -12 -24 -2 -11 -21
right_child=2 3 -4 4 10 13 7 23 9 28 18 -13 -14 -15 15 -17 22 -19 -20 20 21 -23 26 -25 -26 -27 -28 -29 -30 -31
leaf_value=0.02719405632021062 -0.027889400429093065 -0.015585665454246809 -0.026794390319874007 0.0033675658779978267 -0.024570745225672354 -0.00018485824686460914 0.019112971984585642 0.020947229043989657 -0.018119338378885547 0.0065933537932526681 0.0015515761741707395 0.0069041435302859668 -0.0090074473856191061 0.033621530238818899 0.017744833137472708 0.041055427951219338 -0.011902838153785853 -0.00087636270948282752 -0.0015890218922830067 0.004099318893164847 0.020491088459264901 -0.0026624586415858343 0.00039184852915567672 0.0016041775976676645 -0.010343736503020935 0.032867469903596812 0.018326381034032165 -0.014986833514317781 -0.019540787973777483 0.034292824929689519
leaf_count=4389 8265 6506 61106 3444 3396 13588 3907 5883 8387 10012 1164 8574 803 1211 2553 6587 5575 4164 7320 829 5971 2699 20868 2336 860 2491 2992 32943 1723 5461
internal_value=0 0.224141 -0.327442 0.081525 0.190087 -0.200646 0.413898 0.503862 -0.269563 -0.110934 -0.00687949 0.265374 0.445876 0.0535036 0.606766 0.694793 -0.0507277 -0.219539 0.129772 0.360124 0.42016 0.275173 -0.000579131 0.322133 0.342042 0.462157 0.0532092 -0.351767 0.0550832 0.609053
internal_count=246007 108772 137235 73740 37799 76129 35032 21266 61330 20122 19395 13766 5192 14799 13047 9140 35941 7560 11835 18404 14960 8670 29435 8219 4515 3655 23860 41208 11735 6290
shrinkage=0.05


Tree=18
num_leaves=31
num_cat=0
split_feature=260 260 260 8 6 106 8 7 256 6 33 109 14 7 10 51 6 33 14 109 258 128 6 8 6 258 264 80 31 6
split_gain=1204.73 248.728 188.126 75.9074 128.754 75.245 68.9819 84.5064 59.9343 59.4224 51.916 44.853 46.5817 42.6687 39.2923 37.2674 34.7405 34.1187 32.786 40.1392 37.8177 32.5697 31.6499 32.8992 44.5144 30.847 28.8956 28.8436 28.6775 28.4221
threshold=0.11683927476406099 0.04360602609813214 0.19456095248460772 675191.25000000012 279173.25000000006 3.5000000000000004 450117.00000000006 21174.750000000004 0.0018560517928563061 497634.75000000006 0.34987555444240576 1.0000000180025095e-35 13.500000000000002 29252.250000000004 -9495.4999999999982 0.82684999704360973 534172.50000000012 0.52899128198623668 12.500000000000002 1.0000000180025095e-35 -4273.4228515624991 1.0000000180025095e-35 276295.50000000006 450117.00000000006 511051.50000000006 -5013.5278320312491 45426406.000000007 1.0000000180025095e-35 0.39508715271949774 1017272.2500000001
decision_type=2 2 2 8 2 8 10 10 2 2 10 2 8 10 2 10 2 10 8 2 2 2 2 10 2 2 2 10 10 2
left_child=1 8 5 4 17 11 7 -6 -1 -9 14 22 -13 -8 15 18 -15 21 -10 20 -20 -3 -2 24 -24 -23 -21 -7 -22 -5
right_child=2 3 -4 29 6 27 13 9 10 -11 -12 12 -14 16 -16 -17 -18 -19 19 26 28 25 23 -25 -26 -27 -28 -29 -30 -31
leaf_value=0.039908088233236078 -0.026869196018909774 -0.015197347301368808 -0.026094557802879 -0.015633697683961376 0.0062105494842454555 -1.4281810058920732e-05 -0.0037721164278220996 0.019775080837787978 0.012950488834067986 0.045602711454160907 0.0084842057317401111 -0.017257246614055779 0.0025075851545616097 -0.01726178869956568 0.0074639988072228757 0.0013706254901137474 0.019872780010814974 -0.017716666939387369 0.010831069945923288 0.021377031157767287 0.032312086985874337 -0.012265129288726612 -0.010298930401810916 -0.018242465233963997 0.025927343602250338 0.008956616074385795 0.043199558309590241 0.030366684985564985 0.0079228463974155439 -0.00051488919156005551
leaf_count=1978 10438 3878 61106 7266 8345 13447 9242 7030 3693 3832 10794 8402 11756 926 3586 1481 5741 5504 3788 1584 5283 2932 7905 21260 1727 8020 3609 1194 1147 9113
internal_value=0 0.211197 -0.315821 0.0720282 0.132554 -0.192393 0.258756 0.394203 0.381605 0.585484 0.351088 -0.25887 -0.105336 0.0829605 0.416235 0.461772 0.296618 -0.0933994 0.492845 0.547256 0.445539 -0.0125912 -0.339182 -0.272319 -0.0732222 0.0778887 0.736027 0.0523011 0.567148 -0.145206
internal_count=246007 108772 137235 71829 55450 76129 35116 19207 36943 10862 34965 61488 20158 15909 24171 20585 6667 20334 19104 15411 10218 14830 41330 30892 9632 10952 5193 14641 6430 16379
shrinkage=0.05


Tree=19
num_leaves=31
num_cat=0
split_feature=260 260 260 31 11 83 8 6 8 125 8 6 109 6 128 7 14 14 83 108 31 6 11 269 72 10 268 269 11 259
split_gain=1097.59 269.227 132.795 77.5354 113.861 70.662 65.3373 73.4281 57.5426 55.0789 54.1275 95.6925 50.9201 42.3122 38.3171 37.1788 35.8826 35.7278 31.7329 40.2078 31.6681 30.5995 30.521 30.5047 29.706 28.3114 27.6543 27.3135 26.592 26.5281
threshold=0.1317018195986748 0.054664485156536109 0.19456095248460772 0.13851153850555423 -5053.4999999999991 1.0000000180025095e-35 675191.25000000012 284323.50000000006 450117.00000000006 1.0000000180025095e-35 450117.00000000006 497634.75000000006 1.0000000180025095e-35 539165.25000000012 1.0000000180025095e-35 23109.750000000004 1.5000000000000002 15.500000000000002 1.0000000180025095e-35 1.0000000180025095e-35 0.10011846199631692 630049.50000000012 -3147.4999999999995 -4842.5761718749991 0.0053499999921768912 -9873.4999999999982 0.021920571103692058 -2897.6896972656245 -1485.4999999999998 0.24568707495927813
decision_type=2 2 2 10 10 2 8 2 10 2 8 2 2 2 2 10 10 8 2 2 10 2 10 2 8 2 2 2 10 2
left_child=1 5 9 4 -3 26 7 16 13 12 11 18 23 20 -5 -15 -7 -14 -6 -20 22 -10 -9 -2 -19 -22 -1 -21 -4 -30
right_child=2 3 28 14 10 6 -8 8 21 -11 -12 -13 17 15 -16 -17 -18 24 19 27 25 -23 -24 -25 -26 -27 -28 -29 29 -31
leaf_value=0.012921778301005181 -0.017673948587013759 -0.0087275626544390927 -0.028514900746659272 -0.015329306458462828 -0.0002430289842151557 0.016775659590189163 0.0063090668002699583 0.014942590986443439 0.0069531994986918606 -0.022334683968181362 0.0029764701347633846 0.050283230396862645 -0.010307549467893742 -0.0030671521754244467 -0.0014677091634226012 0.055725140233742532 -0.0041341646190566983 0.1782894351149257 0.029756225474944366 -0.0082356315587904568 0.026187804103346812 0.025230457456556662 0.04181010667718156 -0.0045187885903171217 0.0083342672388980136 -0.00011743242608082334 -0.0013343599898006087 0.016523109087571326 -0.0072636482551391547 -0.025952606259846456
leaf_count=6111 19711 14171 44265 11076 4091 6762 6558 1109 3440 14954 13028 2026 6393 234 21146 1843 2272 38 4210 2244 4207 4228 3583 11458 9050 1003 6309 3646 7366 9475
internal_value=0 0.177734 -0.340091 0.0238286 0.118326 0.329856 0.39171 0.447581 0.540816 -0.215629 0.231112 0.357874 -0.150317 0.654802 -0.119713 0.995995 0.231132 0.0308252 0.254661 0.353707 0.578036 0.34231 0.730628 -0.249108 0.180962 0.420665 0.132317 0.16731 -0.507963 -0.350311
internal_count=246007 123297 122710 75638 43416 47659 35239 28681 19647 61604 29245 16217 46650 11979 32222 2077 9034 15481 14191 10100 9902 7668 4692 31169 9088 5210 12420 5890 61106 16841
shrinkage=0.05


end of trees

feature importances:
Column_260=80
Column_11=55
Column_31=44
Column_33=33
Column_8=29
Column_14=29
Column_7=25
Column_6=24
Column_125=24
Column_83=16
Column_128=16
Column_258=15
Column_108=14
Column_268=14
Column_269=14
Column_109=11
Column_10=10
Column_273=9
Column_261=8
Column_106=7
Column_254=7
Column_81=5
Column_107=5
Column_266=5
Column_267=5
Column_123=4
Column_246=4
Column_250=4
Column_259=4
Column_263=4
Column_264=4
Column_12=3
Column_80=3
Column_243=3
Column_253=3
Column_256=3
Column_257=3
Column_262=3
Column_270=3
Column_2=2
Column_13=2
Column_32=2
Column_34=2
Column_51=2
Column_62=2
Column_64=2
Column_73=2
Column_76=2
Column_102=2
Column_103=2
Column_248=2
Column_272=2
Column_1=1
Column_5=1
Column_23=1
Column_36=1
Column_37=1
Column_40=1
Column_41=1
Column_42=1
Column_44=1
Column_48=1
Column_54=1
Column_55=1
Column_56=1
Column_58=1
Column_59=1
Column_72=1
Column_78=1
Column_130=1
Column_143=1
Column_241=1
Column_247=1
Column_252=1

parameters:
[boosting: gbdt]
[objective: binary]
[metric: auc,l2]
[tree_learner: serial]
[device_type: cpu]
[data: ]
[valid: ]
[num_iterations: 100]
[learning_rate: 0.05]
[num_leaves: 31]
[num_threads: 0]
[max_depth: -1]
[min_data_in_leaf: 20]
[min_sum_hessian_in_leaf: 0.001]
[bagging_fraction: 0.8]
[bagging_freq: 5]
[bagging_seed: 3]
[feature_fraction: 0.9]
[feature_fraction_seed: 2]
[early_stopping_round: 0]
[max_delta_step: 0]
[lambda_l1: 0]
[lambda_l2: 0]
[min_gain_to_split: 0]
[drop_rate: 0.1]
[max_drop: 50]
[skip_drop: 0.5]
[xgboost_dart_mode: 0]
[uniform_drop: 0]
[drop_seed: 4]
[top_rate: 0.2]
[other_rate: 0.1]
[min_data_per_group: 100]
[max_cat_threshold: 32]
[cat_l2: 10]
[cat_smooth: 10]
[max_cat_to_onehot: 4]
[top_k: 20]
[monotone_constraints: ]
[feature_contri: ]
[forcedsplits_filename: ]
[refit_decay_rate: 0.9]
[verbosity: 0]
[max_bin: 255]
[min_data_in_bin: 3]
[bin_construct_sample_cnt: 200000]
[histogram_pool_size: -1]
[data_random_seed: 1]
[output_model: LightGBM_model.txt]
[snapshot_freq: -1]
[input_model: ]
[output_result: LightGBM_predict_result.txt]
[initscore_filename: ]
[valid_data_initscores: ]
[pre_partition: 0]
[enable_bundle: 1]
[max_conflict_rate: 0]
[is_enable_sparse: 1]
[sparse_threshold: 0.8]
[use_missing: 1]
[zero_as_missing: 0]
[two_round: 0]
[save_binary: 0]
[enable_load_from_binary_file: 1]
[header: 0]
[label_column: ]
[weight_column: ]
[group_column: ]
[ignore_column: ]
[categorical_feature: ]
[predict_raw_score: 0]
[predict_leaf_index: 0]
[predict_contrib: 0]
[num_iteration_predict: -1]
[pred_early_stop: 0]
[pred_early_stop_freq: 10]
[pred_early_stop_margin: 10]
[convert_model_language: ]
[convert_model: gbdt_prediction.cpp]
[num_class: 1]
[is_unbalance: 0]
[scale_pos_weight: 1]
[sigmoid: 1]
[boost_from_average: 1]
[reg_sqrt: 0]
[alpha: 0.9]
[fair_c: 1]
[poisson_max_delta_step: 0.7]
[tweedie_variance_power: 1.5]
[max_position: 20]
[label_gain: ]
[metric_freq: 1]
[is_provide_training_metric: 0]
[eval_at: ]
[num_machines: 1]
[local_listen_port: 12400]
[time_out: 120]
[machine_list_filename: ]
[machines: ]
[gpu_platform_id: -1]
[gpu_device_id: -1]
[gpu_use_dp: 0]

end of parameters

pandas_categorical:null
